-0.161892218145,0.687163014371,-0.67339331588,-0.177766310047,-0.384875641638,-0.919629260314,-0.453379897586,0.957986885125,0.487938195463,-0.808584208779,-0.00702731404313,1.02721727011,-0.367531302719,-0.538016778357,0.546374876998,-0.45398438227,0.581508742255,-1.18655321888,-0.487122007665,-0.414557763206,0.541165885897,-0.851875222073,0.350173507071,-0.98971245887,0.0551187583245,0.479548115912,-0.450328588688,0.528217829685,0.652808233299,-0.543427094877,-0.210398806114,-1.09376594406,-0.501939287057,-0.157975803802,0.685230586038,0.0569586373484,-0.549884730451,0.253059376766,-0.915187123
-0.236089227983,0.655928233829,-0.69348270949,-0.103063642665,-0.362672248682,-0.90395852598,-0.392260730995,0.98726596747,0.486774059831,-0.754773950428,0.0365946998325,1.05192560479,-0.323649052824,-0.517267134229,0.602308993558,-0.628222561894,0.477086611089,-1.28388594628,-0.560922500499,-0.443572849814,0.487363221949,-0.851356178109,0.379271948071,-0.975445031426,0.0554430890528,0.454846474768,-0.470764144493,0.362599665849,0.583563728145,-0.572063017671,-0.324502334047,-1.18651937837,-0.580061504834,-0.335742051199,0.593460407504,-0.0118547413529,-0.636571137009,0.193581210942,-0.984650880543
-0.262586700304,0.643880793923,-0.701824329332,-0.0670118666161,-0.354607438497,-0.900801064565,-0.361194096129,1.00659833591,0.476581942147,-0.732803192154,0.0688649853699,1.06523910563,-0.302141638227,-0.504555435074,0.646090417108,-0.706376668463,0.417891004714,-1.34414276035,-0.586102109478,-0.43747605737,0.47471719501,-0.847145416808,0.408756238264,-0.959161608065,0.0591271101841,0.432372909613,-0.490356568037,0.308372545756,0.566203400703,-0.565843635112,-0.379478160013,-1.23448517956,-0.611564237937,-0.42233061851,0.546130915705,-0.0514260378631,-0.677738524782,0.168452620626,-1.01601875163
-0.272950370771,0.638582690857,-0.708225337552,-0.0466240898727,-0.352500441486,-0.903241096148,-0.344398714006,1.02128618852,0.462747945108,-0.723602995362,0.0965595090167,1.07524663686,-0.291608435253,-0.496047059725,0.684529987096,-0.748443133854,0.375689242603,-1.3891844226,-0.593128696463,-0.418401020405,0.478245372295,-0.842441376628,0.43791790623,-0.942442496556,0.0641703865528,0.410652847954,-0.510467071699,0.293656528479,0.566427113096,-0.546595220803,-0.412539634446,-1.26597578541,-0.62648332279,-0.47032063833,0.516711628242,-0.0775783594075,-0.699155912245,0.158460216405,-1.03060412062
-0.276377419723,0.636339855177,-0.71501441697,-0.033181056803,-0.353179959895,-0.909064461246,-0.334885444741,1.03376579693,0.447405662314,-0.719869301605,0.122352395319,1.08494161615,-0.286492144662,-0.489772453485,0.720946298874,-0.773575238397,0.34135126656,-1.42694117396,-0.591844878377,-0.393129311785,0.489981957873,-0.838171637605,0.466664265675,-0.925818819299,0.069909125014,0.389197317383,-0.531495184042,0.294668684583,0.573606942674,-0.521956027161,-0.436568760909,-1.29099202735,-0.635142564459,-0.499054074552,0.49604613846,-0.0967326984384,-0.710669284493,0.156172962674,-1.03651124741
-0.276343734,0.635741835908,-0.722900230225,-0.0229078223512,-0.355267149694,-0.917454651701,-0.329389990765,1.04518949903,0.431465800553,-0.718559955071,0.147367974068,1.09554210736,-0.284254334448,-0.484818044986,0.756892931609,-0.789728299488,0.311008551614,-1.46095387513,-0.58635759603,-0.36435278121,0.506662747679,-0.834507455945,0.495075463839,-0.909436970598,0.0761633263333,0.367874347794,-0.553510877336,0.302345886336,0.583801315527,-0.49490772985,-0.456583729649,-1.31347748388,-0.641560897774,-0.517090389053,0.480176341775,-0.111905950297,-0.716726078933,0.158238759824,-1.03739296828
-0.274379358643,0.636164703714,-0.732120859888,-0.0139764088626,-0.358095551397,-0.928075859245,-0.326254434628,1.05614803482,0.41535290526,-0.718329293249,0.172105996534,1.10758344609,-0.283694164768,-0.480749725284,0.79314988347,-0.800801676745,0.282722436409,-1.49304640496,-0.578687195985,-0.333327967708,0.526723083591,-0.831380017985,0.523269530121,-0.893302911461,0.0829217090436,0.346674125367,-0.576479139992,0.312944429774,0.595403906489,-0.466684438819,-0.474679482283,-1.33510297053,-0.647417231519,-0.528768997365,0.467111812338,-0.124691705753,-0.719608449119,0.162947440644,-1.03511971994
-0.271218103424,0.637308615213,-0.742754177167,-0.0054192967696,-0.361314367335,-0.940775080038,-0.324580914931,1.06696493534,0.399272693451,-0.718577762273,0.196791408691,1.12130720437,-0.284231012409,-0.477358368267,0.830133610443,-0.808913204486,0.255412730298,-1.52425168456,-0.56993606191,-0.300700499693,0.549338951809,-0.828665557727,0.551357921675,-0.877376040241,0.0902226805516,0.325620918318,-0.600342475233,0.324880135542,0.607741027049,-0.437796617595,-0.491747807694,-1.35659583401,-0.653422725447,-0.536505208653,0.455744747266,-0.136005584088,-0.720595911311,0.169347864122,-1.03073724939
-0.267229004397,0.639022683137,-0.754820895439,0.00331766329938,-0.364724412076,-0.955471771218,-0.323859219396,1.07782712103,0.383322299008,-0.71905225823,0.22152230469,1.13681958309,-0.28558585879,-0.474545203818,0.868076349508,-0.815288178241,0.228434608801,-1.55519390453,-0.56074641691,-0.266819735486,0.57405254476,-0.82624823814,0.579433473934,-0.861605170631,0.0981111053523,0.304742014082,-0.625048704206,0.337489882023,0.620533601393,-0.408444020535,-0.508165104753,-1.3782739677,-0.659869503326,-0.541732778822,0.445413806886,-0.146406617098,-0.720451204368,0.176878800082,-1.02486636361
-0.262601696093,0.641229465649,-0.768322208103,0.0125764697212,-0.368204164944,-0.972113641321,-0.323788357138,1.08884777588,0.367541085279,-0.719664787976,0.246336879865,1.15416106391,-0.287632354081,-0.472267860993,0.907109964003,-0.8206626895,0.20138490724,-1.58626817977,-0.551508298712,-0.231878450459,0.60060281397,-0.824037143726,0.607569850694,-0.84594156496,0.10662460804,0.28405867221,-0.650557799578,0.350505011432,0.633670602719,-0.378694411145,-0.524087549656,-1.40027608319,-0.666867122482,-0.545341646684,0.435703928316,-0.156251879995,-0.71964878367,0.185195787564,-1.01789075485
-0.257433305777,0.643889616109,-0.783253483385,0.0225836885742,-0.371674205176,-0.990657924824,-0.324185319761,1.10009862821,0.351936206889,-0.72040703693,0.271244714186,1.17333797026,-0.29032431546,-0.470513993397,0.947307221951,-0.825488114546,0.174003320612,-1.6177334593,-0.542465150999,-0.19598254679,0.628839607987,-0.821967088678,0.635824384939,-0.830343011561,0.115790864982,0.263585090027,-0.676841311329,0.363820527764,0.647109928329,-0.3485627695,-0.53958072262,-1.42266347617,-0.67444705056,-0.547901519882,0.4263447691,-0.165777568372,-0.718492621476,0.194082187733,-1.0100537904
-0.251771735306,0.646984366963,-0.799608587494,0.0334994218429,-0.375079182298,-1.01106289614,-0.324936001098,1.11162738421,0.336496418634,-0.72130940418,0.296241577722,1.19433670497,-0.293659058237,-0.469287898463,0.98870288899,-0.830043611911,0.146118028865,-1.64976391158,-0.533772021256,-0.159189276023,0.658676111065,-0.819994746307,0.664241288999,-0.814774617998,0.125628488529,0.243329852271,-0.703879732945,0.377393987752,0.66083475723,-0.318046279321,-0.554676209144,-1.44546482644,-0.682608531819,-0.549784844991,0.417155082837,-0.175144457936,-0.717181451212,0.203400068472,-1.00151214484
-0.245638308548,0.650506440522,-0.81738051758,0.0454430635948,-0.378378300192,-1.03328356537,-0.325967697755,1.12346753213,0.32120000931,-0.722421132256,0.321316477832,1.21712988995,-0.297657940757,-0.468603397549,1.03130476377,-0.834501643434,0.117614304871,-1.68247854259,-0.525529515613,-0.121529872574,0.690060559096,-0.818094277768,0.692854276195,-0.799208570072,0.136148691865,0.223297798795,-0.731659762256,0.391202153445,0.674834575819,-0.287139487335,-0.569395681467,-1.46869543709,-0.691338114695,-0.551238420637,0.408010419342,-0.184464743795,-0.715846961916,0.213061490063,-0.992367255972
-0.239040199208,0.654455114301,-0.836560641561,0.0585070494294,-0.38154020009,-1.05726910716,-0.32723318873,1.13564403442,0.306019620555,-0.723800481847,0.346455052638,1.24167867483,-0.302355294366,-0.468479770309,1.07509949678,-0.838967550996,0.0884159848289,-1.71595855001,-0.517804305746,-0.0830238243091,0.722958423504,-0.816253733132,0.72168843217,-0.783623696489,0.147356782708,0.203491634521,-0.760172043835,0.405223214996,0.689097148226,-0.255840675612,-0.583760659671,-1.49236509619,-0.700617459933,-0.552426951977,0.398823533072,-0.193818509876,-0.714577113943,0.223010955221,-0.982684600995
-0.231977619603,0.658833399653,-0.85713745863,0.0727639864451,-0.384540269159,-1.08296104932,-0.328701285786,1.14817670829,0.290925326309,-0.725509627659,0.371641275426,1.26793323577,-0.307791462249,-0.468939182999,1.12005562648,-0.843503947728,0.0584745569985,-1.75025739516,-0.510641696714,-0.0436883376791,0.757340636291,-0.814472412181,0.750761442945,-0.768005111654,0.159253256075,0.183913137227,-0.789409463921,0.419430117835,0.70360527023,-0.224154435793,-0.597796122428,-1.51648098341,-0.710426065037,-0.553460401654,0.389532122433,-0.203264116597,-0.713430814204,0.233214313906,-0.97250590841
-0.224448246414,0.663646320889,-0.879095223309,0.0882699186714,-0.387359369308,-1.11029185933,-0.330351131319,1.16108225704,0.27588669338,-0.727611689674,0.396858417181,1.29583245128,-0.314007854124,-0.470004841966,1.16612512421,-0.848145875501,0.0277629175994,-1.7854064134,-0.504073298959,-0.00354486561713,0.793175482094,-0.812759018404,0.780084348152,-0.752343992085,0.171834511628,0.164564001864,-0.819365900698,0.433788582962,0.718335572727,-0.192092654503,-0.611531569148,-1.54104849282,-0.720741872752,-0.55441156185,0.380090994527,-0.21284487,-0.712447352113,0.243651569898,-0.961857091418
-0.2164501491,0.668899777012,-0.902412552866,0.105065256522,-0.389983431132,-1.1391838188,-0.332168734113,1.17437548575,0.26087421689,-0.730168647599,0.422089722734,1.32530326554,-0.321043001556,-0.47169949566,1.21324417705,-0.852910238382,-0.00372798948632,-1.82141767417,-0.49812160221,0.0373762766081,0.830422828358,-0.811130364528,0.809661976619,-0.736637466661,0.185093293066,0.145446408423,-0.850035298784,0.448257061836,0.733258197063,-0.159674848461,-0.625001066783,-1.56607122254,-0.731541053665,-0.555327523665,0.370466996496,-0.222593341686,-0.711652552206,0.254312128572,-0.950753504343
-0.207983876661,0.674599715915,-0.927061065317,0.123174311714,-0.392403572961,-1.16954817841,-0.334144874663,1.18807000857,0.24586035351,-0.733239549071,0.447319013597,1.3562600334,-0.328929150145,-0.47404411052,1.26133364949,-0.857801683343,-0.035990794009,-1.85828519444,-0.492802572209,0.0790326362057,0.86902994037,-0.809610407739,0.839493191322,-0.720888580203,0.199018952239,0.126563400519,-0.881410949462,0.462787497507,0.748336863197,-0.126928215504,-0.63824289551,-1.59155065448,-0.742797500361,-0.556237247353,0.3606357211,-0.232534167345,-0.711062820601,0.265191609965,-0.939203487155
-0.199054037669,0.68075148015,-0.953004085875,0.142604089482,-0.394616510395,-1.20128462517,-0.336273862441,1.20217863058,0.230820281736,-0.736878762573,0.472531306675,1.38860404143,-0.337689220068,-0.477056655724,1.31029950915,-0.862816314978,-0.0690023548779,-1.8959852583,-0.488126999652,0.121367377007,0.908928466465,-0.808229437779,0.869571040762,-0.705106288066,0.213597625142,0.107919147657,-0.913484883827,0.477326467659,0.763529157438,-0.093887516844,-0.65129901367,-1.61748573161,-0.754482245674,-0.557156606648,0.350579369188,-0.242685842634,-0.710687821387,0.276289679922,-0.92721080315
-0.189670532689,0.687359254182,-0.980195473906,0.163342839122,-0.396625075805,-1.23428110606,-0.338552825257,1.21671351723,0.215732464899,-0.741134209633,0.497713470737,1.42222334958,-0.347334131192,-0.480750994595,1.36003341079,-0.867944143325,-0.10272399344,-1.93447638022,-0.484101091832,0.164307905538,0.950032386064,-0.807023287291,0.899882889316,-0.689305443102,0.228812387378,0.0895191471373,-0.946247313241,0.491816568975,0.778786993055,-0.0605948015421,-0.664214405355,-1.6438724114,-0.766562888154,-0.558091790959,0.340285372158,-0.253061852008,-0.710532257959,0.287608545308,-0.91477636143
-0.179849499016,0.694425583844,-1.00857864154,0.185358773546,-0.398438698745,-1.26841405138,-0.340981325552,1.2316862249,0.200579060682,-0.746045615257,0.522854903345,1.45699306472,-0.35786058027,-0.485135917061,1.41041357258,-0.873170844048,-0.137101695167,-1.97369930794,-0.480726644239,0.207765300885,0.992236840048,-0.80603247527,0.93041058009,-0.673506740686,0.244643438072,0.0713704050508,-0.979686077267,0.506197998106,0.794057242408,-0.0270989468219,-0.677036322142,-1.67070322971,-0.779003065544,-0.559041648791,0.329745511986,-0.263671354117,-0.710597073674,0.299151877701,-0.901899483577
-0.169613972512,0.701950963093,-1.03808584954,0.208599297165,-0.400073722277,-1.30354903257,-0.343561167201,1.24710764263,0.185346201447,-0.75164287523,0.547948187197,1.49277612497,-0.369249400229,-0.490214366491,1.46130603239,-0.878479189535,-0.172066558089,-2.01357735617,-0.478001025465,0.25163452585,1.0354178347,-0.805301231041,0.961130668833,-0.657736591702,0.261068344597,0.0534816202935,-1.01378608324,0.520410298765,0.809282547701,0.00654501810759,-0.689813423619,-1.69796690096,-0.791762011214,-0.559999364339,0.318955361134,-0.274519577457,-0.710880283719,0.310924005803,-0.888578887966
-0.158994244568,0.709933497374,-1.06863787026,0.232991006107,-0.401553455696,-1.33954187523,-0.346296299211,1.26298788146,0.170024157803,-0.757944668065,0.572989672049,1.52942463665,-0.381464635553,-0.495982918924,1.51256633123,-0.883850350349,-0.207535673833,-2.05401727384,-0.475917133483,0.295795410546,1.07943284046,-0.804876378711,0.99201475513,-0.642026897522,0.278062365577,0.0358633807118,-1.0485287436,0.534394226232,0.824402309177,0.0402768271396,-0.702594832361,-1.72564798517,-0.804794234765,-0.560953732222,0.307913919821,-0.285608035105,-0.71137758207,0.322929267837,-0.874813506387
-0.14802788595,0.71836865991,-1.10014409903,0.258440634895,-0.402907895152,-1.37624022805,-0.349192751168,1.27933613932,0.154607391152,-0.764957443015,0.597979925232,1.56678176247,-0.394453439046,-0.502431564472,1.56404163157,-0.889265149559,-0.243413543764,-2.09491076405,-0.474463423209,0.340114389128,1.12412230333,-0.804806091135,1.02302992613,-0.626414705938,0.295598856322,0.0185283668551,-1.08389143622,0.548093653593,0.839353834129,0.0740321349764,-0.715429134788,-1.75372665926,-0.818049374197,-0.561890207397,0.296623365349,-0.296934637891,-0.712082820486,0.335171451723,-0.860603205263
-0.136759418568,0.727249158325,-1.13250317283,0.284837017986,-0.404173081238,-1.41348556401,-0.352258555828,1.29616056338,0.139094498026,-0.772674896533,0.622923999787,1.60468411318,-0.408146840049,-0.509543821535,1.6155732402,-0.894705268951,-0.279594054617,-2.13613669245,-0.473624058724,0.384446941819,1.16931205557,-0.805138547336,1.0541393179,-0.610941733253,0.313649749215,0.00149154703459,-1.11984702779,0.561457420972,0.854073612726,0.107743897679,-0.728363373444,-1.78217863321,-0.831472266773,-0.56279184354,0.285088854461,-0.308493764853,-0.71298842252,0.347653278511,-0.845949451806
-0.125239636578,0.736564925187,-1.16560412031,0.312054019867,-0.405390104548,-1.45111556198,-0.355503630394,1.31346812733,0.123488049136,-0.781078011486,0.647831483679,1.64296454932,-0.422461361848,-0.51729718711,1.6669994678,-0.900154353016,-0.315962966309,-2.17756393916,-0.473379206594,0.428640654083,1.21481656134,-0.805920546907,1.08530278983,-0.595653745641,0.332186092061,-0.0152296612497,-1.156363509,0.574441016796,0.868498670678,0.141343931361,-0.741442084925,-1.81097524771,-0.845003276208,-0.56364018514,0.27331833918,-0.32027633445,-0.714085769989,0.360375906609,-0.830855940781
-0.113524604848,0.746303238345,-1.1993280239,0.339954276263,-0.406603811977,-1.48896678614,-0.358939601504,1.33126453644,0.107794328578,-0.790135682331,0.672716314245,1.68145526083,-0.437301388308,-0.52566389547,1.71815872309,-0.905598932582,-0.352400803186,-2.21905477515,-0.473705459379,0.47253875936,1.260442869,-0.807196147608,1.11647769855,-0.580599802477,0.351178620513,-0.0316152927626,-1.19340379133,0.587007982459,0.882567936936,0.174764581443,-0.754706439189,-1.84008377848,-0.85857889501,-0.564416141753,0.261322371662,-0.332269907331,-0.715365579869,0.373338451974,-0.815329179018
-0.101674390365,0.756448966824,-1.23355012842,0.368393496636,-0.407861302506,-1.5268775514,-0.362579570315,1.34955416914,0.0920229826805,-0.799805893446,0.69759636586,1.71999096388,-0.452562109943,-0.534611927835,1.76889271182,-0.911029092333,-0.388785993745,-2.26046858372,-0.474576360718,0.515983988854,1.30599507736,-0.809005397043,1.14761974976,-0.565831374886,0.370598336851,-0.0476428273333,-1.23092570846,0.599130948856,0.896223558653,0.207940417547,-0.768193530046,-1.86946795451,-0.872132615074,-0.5651008452,0.249113885535,-0.344458840258,-0.716818274792,0.386537533073,-0.799379011894
-0.0897516054535,0.766984927259,-1.26814228739,0.397225018022,-0.40921032582,-1.56469083939,-0.36643782336,1.36834005945,0.0761865928496,-0.810037365703,0.72249284192,1.75841204119,-0.468132829263,-0.544106192384,1.81904959122,-0.916438829743,-0.424998076796,-2.30166570886,-0.475962994965,0.558822519256,1.35127906802,-0.81138322559,1.17868390005,-0.551401363558,0.390417066739,-0.0632872965807,-1.26888225075,0.610792242981,0.909412096707,0.240809860305,-0.781935854162,-1.8990886758,-0.885596031189,-0.565676471147,0.236707950507,-0.356824500535,-0.718434339954,0.399966858774,-0.783019068641
-0.0778198567007,0.777892326217,-1.30297560597,0.426304281126,-0.410697706519,-1.60225711511,-0.37052950173,1.3876239206,0.0603001912457,-0.820771546053,0.747429520978,1.79656745525,-0.483900382155,-0.554109780865,1.86848692456,-0.921826088874,-0.460920786171,-2.34251119719,-0.477834603484,0.60090779389,1.39610722297,-0.814358556562,1.20962527609,-0.53736304948,0.410607967842,-0.0785215170637,-1.30722204161,0.621984040298,0.92208554298,0.27331664789,-0.795960999196,-1.92890489432,-0.898900115872,-0.566126995186,0.224121503896,-0.369345541268,-0.720204652935,0.413616882235,-0.766267101367
-0.0659421979187,0.789151256866,-1.33792312092,0.455492922514,-0.412367909728,-1.63943689413,-0.374870245557,1.40740620643,0.044380741409,-0.831944791514,0.772431918506,1.83431728372,-0.499752438512,-0.564585206952,1.91707428778,-0.927192491372,-0.496444840593,-2.38287821253,-0.480159194229,0.642103999106,1.44030284158,-0.817953672564,1.2404000765,-0.523769018645,0.431145968796,-0.0933164497405,-1.34589004232,0.632708078043,0.934202114344,0.305411061956,-0.810291543281,-1.95887460419,-0.91197658479,-0.566438849647,0.211373067173,-0.381998230251,-0.722120770552,0.427474544439,-0.749145195358
-0.0541796791988,0.800741215231,-1.37286235842,0.484662235606,-0.414261842546,-1.67610292524,-0.379475832558,1.42768620477,0.028446607342,-0.843490594483,0.797526428947,1.87153475921,-0.515580478254,-0.57549554171,1.96469540295,-0.932542820332,-0.531470297071,-2.42265093712,-0.482904118399,0.682289006589,1.4837039982,-0.822183856866,1.27096642224,-0.510670105791,0.452008123158,-0.107641672568,-1.38482845059,0.642974980075,0.945726795885,0.337050853314,-0.824945150945,-1.98895587605,-0.924759262968,-0.566601449966,0.198482457749,-0.394756819891,-0.724175157819,0.441523127691,-0.731679834574
-0.0425900687951,0.812641602086,-1.40767762695,0.513695835607,-0.416415954254,-1.71214188273,-0.384361828964,1.44846215451,0.0125170337723,-0.855341709047,0.822739507919,1.90810773896,-0.531282290682,-0.58680538072,2.01124970764,-0.937884334404,-0.565908369632,-2.46172682668,-0.486036595857,0.72135664031,1.52616663608,-0.827057308086,1.30128512391,-0.498114402383,0.473173869688,-0.121465941655,-1.42397774112,0.652803270692,0.95663162489,0.368201833714,-0.839934836781,-2.01910786792,-0.937185364305,-0.566607567032,0.185470506306,-0.407593942458,-0.726361347694,0.4557422332,-0.713901814876
-0.031226803242,0.824832180929,-1.44226193302,0.542491454834,-0.418861662517,-1.7474555027,-0.389543268761,1.46973137786,-0.00338834245728,-0.867432063914,0.848096943195,1.94393957603,-0.546763906118,-0.598481601492,2.05665331253,-0.943225997292,-0.599682664162,-2.50001814818,-0.489524178051,0.759218187315,1.56756676766,-0.832575307998,1.33132033968,-0.486146370204,0.494625196836,-0.134757808212,-1.46327778551,0.662218170262,0.966895725279,0.398838127893,-0.855269359307,-2.04929175069,-0.949196609437,-0.566453532638,0.172358788524,-0.420481014211,-0.728674025564,0.47010788882,-0.695846006974
-0.0201381972369,0.837293469416,-1.47651844712,0.570961880737,-0.421625098691,-1.7819611431,-0.395034373555,1.4914904189,-0.0192499341755,-0.879698381285,0.873623248079,1.97894940856,-0.561940929419,-0.610493894815,2.10083934491,-0.948577702711,-0.632729828095,-2.53745279189,-0.493335142942,0.795803135729,1.6078017333,-0.838732607864,1.36104010427,-0.474806094629,0.516346714995,-0.147486254556,-1.5026689849,0.671250269278,0.976505117291,0.428942105568,-0.870953703677,-2.07947149865,-0.960740126809,-0.566139277035,0.159169377521,-0.433388633222,-0.73110903838,0.484592784544,-0.677550980073
-0.00936692165781,0.850007049963,-1.5103614884,0.599035118519,-0.424727137548,-1.81559179084,-0.400848321026,1.5137351807,-0.035048588171,-0.892081456735,0.899341194563,2.01307192147,-0.576739297376,-0.622815075951,2.14375771776,-0.953949560392,-0.664999655344,-2.57397440447,-0.49743882071,0.831059182482,1.64679054858,-0.84551798914,1.39041671678,-0.464128701839,0.538325644551,-0.159621312724,-1.54209335271,0.679934170971,0.98545233833,0.458504033578,-0.886989612828,-2.10961451166,-0.971769105323,-0.565668208979,0.145924620428,-0.446286958389,-0.733663334027,0.499166625264,-0.659058504778
0.00105026184572,0.862955793616,-1.54371703607,0.626653907564,-0.42818365799,-1.84829557652,-0.406997065521,1.53646105447,-0.0507659063789,-0.904527088395,0.925271488798,2.04625666273,-0.591095521551,-0.635421198696,2.18537439832,-0.959351289159,-0.696454718474,-2.60954193186,-0.50180585212,0.864951600702,1.68447343479,-0.852914950028,1.41942698378,-0.454143953046,0.560551730888,-0.171134633259,-1.58149549325,0.688307178812,0.993735917203,0.487521502017,-0.903376131118,-2.13969205319,-0.982243190279,-0.56504695813,0.132646939724,-0.459146060656,-0.736334841312,0.513796583706,-0.64041295936
0.0110825364399,0.876123998685,-1.57652280691,0.653774744794,-0.432005972294,-1.8800348835,-0.413491210324,1.55966303592,-0.0663845028901,-0.916986671061,0.951432579316,2.07846701233,-0.604956502916,-0.6482915062,2.22567027311,-0.964791742653,-0.72706961997,-2.64412868778,-0.506408383612,0.897462088224,1.72081067233,-0.860902469509,1.44805232102,-0.44487601756,0.583017099286,-0.181999978484,-1.62082343543,0.696408087221,1.0013597459,0.515998684725,-0.920110131184,-2.16967950457,-0.99212863464,-0.564285006524,0.119358657694,-0.471936241051,-0.739122304255,0.528447831549,-0.621660666812
0.0207048725062,0.889497451492,-1.60872796105,0.680366571268,-0.436201361134,-1.91078515232,-0.420339927834,1.5833358258,-0.0818881993153,-0.929417490697,0.977840580169,2.10967890717,-0.618279015609,-0.661408257308,2.26463971741,-0.97027857505,-0.756829962697,-2.67772107472,-0.511220204649,0.928587233683,1.75578094056,-0.869455804255,1.47627872432,-0.436343416281,0.605716063311,-0.192193622736,-1.66002929545,0.704276114762,1.00833239131,0.543945494518,-0.937186802323,-2.19955644879,-1.00139823302,-0.563394239668,0.106081840858,-0.484628313377,-0.742025086166,0.543084123929,-0.602849191316
0.0298977183047,0.903063420425,-1.64029251075,0.706409265862,-0.440773657832,-1.94053348417,-0.427550921516,1.60747391296,-0.0972621635783,-0.941782766817,1.00450928661,2.13987942037,-0.631028956708,-0.674756466967,2.30228897748,-0.975818039907,-0.785731137852,-2.71031708216,-0.5162168338,0.958336736672,1.78937931145,-0.878547280112,1.50409662497,-0.428559118826,0.628644900001,-0.201694650593,-1.69906975679,0.7119500012,1.01466638449,0.571376688533,-0.954600086192,-2.22930660651,-1.01003107553,-0.562388448818,0.0928381605225,-0.497193851915,-0.745042959233,0.557668411625,-0.584026622054
0.0386465808797,0.916810596535,-1.67118651067,0.731892067503,-0.445723835536,-1.96927714006,-0.435130422054,1.63207163984,-0.112492998713,-0.954051495312,1.03145025966,2.16906528217,-0.643180450335,-0.688323595481,2.33863446532,-0.981414905661,-0.813777019425,-2.74192467461,-0.521375560526,0.986731506952,1.82161505377,-0.888147047431,1.53150064878,-0.421530771507,0.651801604163,-0.21048515193,-1.7379063691,0.71946727479,1.02037751914,0.598310970741,-0.972343052161,-2.25891765214,-1.01801216293,-0.561282814521,0.0796487656681,-0.509605406133,-0.74817589424,0.57216345607,-0.565240870116
0.0469415364706,0.93072899435,-1.70138910486,0.756812020648,-0.451050562925,-1.99702201945,-0.443083209626,1.65712325108,-0.127568788873,-0.96619814379,1.05867295729,2.19724141406,-0.654714881059,-0.702099215544,2.37370105117,-0.987072466143,-0.840978640108,-2.77256016368,-0.526675449691,1.01380174871,1.85250938236,-0.898223777555,1.55848929963,-0.415261029876,0.675185632649,-0.218550319202,-1.77650567799,0.726863684511,1.02548418362,0.624770128677,-0.990408210084,-2.28838093926,-1.02533192461,-0.560093398092,0.0665341650196,-0.521836685234,-0.751423862991,0.58653242454,-0.546539001002
0.0547767048317,0.94480982578,-1.73088749728,0.781172511538,-0.456750705659,-2.02378118492,-0.451412654415,1.68262292684,-0.142479109722,-0.978202247094,1.08618489252,2.22441953077,-0.665619916122,-0.716074679363,2.40752042154,-0.992792622814,-0.867352907397,-2.80224663742,-0.532097315639,1.03958511319,1.88209326017,-0.90874528543,1.58506458868,-0.409747968433,0.698797647727,-0.225878457192,-1.8148392052,0.734172783983,1.03000674392,0.650778231213,-1.00878776224,-2.31769116384,-1.03198567738,-0.558836663092,0.0535141161375,-0.533862715508,-0.754786663261,0.600739446108,-0.52796662125
0.0621497158754,0.959045358454,-1.75967590171,0.80498193838,-0.462819761057,-2.04957348181,-0.460120768241,1.7085648026,-0.15721500994,-0.99004794386,1.11399180281,2.25061684819,-0.675888560686,-0.730242801714,2.44012955238,-0.998576016428,-0.892921402347,-2.83101249881,-0.537623672179,1.06412498,1.91040533257,-0.91967907011,1.61123162943,-0.404985540968,0.722639266886,-0.232460918613,-1.85288330325,0.741425648932,1.03396698896,0.676360904677,-1.02747379894,-2.34684599061,-1.03797305794,-0.557529043554,0.040607520527,-0.545659973146,-0.758263773136,0.61475011285,-0.509567333392
0.0690611907324,0.973428767867,-1.78775451466,0.828252538218,-0.469252221597,-2.07442228505,-0.469208261341,1.73494297761,-0.171768969846,-1.00172348728,1.14209781867,2.27585492031,-0.685518276412,-0.744597569116,2.47156932982,-1.00442218844,-0.917709288559,-2.8588901468,-0.543238664206,1.08746890595,1.93749004662,-0.930992770631,1.63699821667,-0.400964067398,0.746712824581,-0.23829198045,-1.89061891052,0.74865070793,1.03738764359,0.701544696485,-1.04645844386,-2.37584566373,-1.04329745527,-0.556186570293,0.0278323248509,-0.557206494582,-0.761854238561,0.628531914941,-0.491382269087
0.0755142532808,0.987953990637,-1.81512854321,0.850999377714,-0.476041868784,-2.09835439068,-0.478674599609,1.76175151392,-0.186134842364,-1.01322075536,1.17050562316,2.30015861618,-0.694510181981,-0.759133880681,2.50188333617,-1.01032975591,-0.941744346385,-2.88591481669,-0.548927985994,1.10966726227,1.96339598535,-0.942654539103,1.66237440492,-0.397670726331,0.771021149813,-0.243368676088,-1.92803123249,0.755873665904,1.04029195088,0.72635652894,-1.06573395613,-2.40469261888,-1.04796546335,-0.554824561565,0.0152054292389,-0.56848196582,-0.765556595248,0.642054602448,-0.473449706072
0.0815140828016,1.00261558422,-1.84180730894,0.873239503877,-0.483182002836,-2.12139905798,-0.488518058972,1.78898442787,-0.200307780792,-1.02453477881,1.19921659712,2.32355523817,-0.702868344833,-0.77384732269,2.53111680674,-1.01629658735,-0.965056137336,-2.91212358465,-0.554678790441,1.13077206648,1.98817442864,-0.954633336139,1.68737209882,-0.395090036461,0.795567361986,-0.247690597462,-1.96510937294,0.763117501047,1.04270332155,0.750823241036,-1.08529279598,-2.43339110938,-1.05198636791,-0.553457379848,0.0027426043029,-0.579467791603,-0.769368823758,0.655290470543,-0.455804770743
0.0870675138751,1.01740859671,-1.86780344034,0.894991243596,-0.490665615852,-2.14358719937,-0.498735774825,1.81663567571,-0.214284157063,-1.03566329869,1.22823094738,2.34607377609,-0.710599166496,-0.788733976488,2.55931575414,-1.02231997037,-0.987675296313,-2.93755453183,-0.560479592861,1.15083600453,2.01187813827,-0.966899155803,1.71200466504,-0.39320431388,0.820354686275,-0.251259679876,-2.00184593634,0.770402517773,1.04464504646,0.774971212737,-1.10512766081,-2.46194685496,-1.0553716766,-0.55209825286,-0.00954158122861,-0.590147144962,-0.773288334821,0.668214568292,-0.438479224901
0.0921826860082,1.03232844882,-1.89313215872,0.916273636694,-0.49848551702,-2.16495070898,-0.509323785531,1.84469913473,-0.228061473637,-1.04660636065,1.25754781715,2.36774428717,-0.717710858887,-0.803790257685,2.58652624991,-1.02839676514,-1.00963294416,-2.96224605742,-0.566320172248,1.16991163136,2.03456035536,-0.979423188456,1.73628657258,-0.391994096124,0.845386288816,-0.254079980242,-2.03823661906,0.777746440723,1.04614006643,0.798826064216,-1.12523149751,-2.49036671903,-1.05813469708,-0.550759154189,-0.0216338203476,-0.600504997451,-0.777311980761,0.680804834103,-0.421501332411
0.09686874273,1.04737082918,-1.91781065759,0.937105985473,-0.506634418457,-2.18552191724,-0.520277069929,1.87316858095,-0.241638271539,-1.05736594913,1.28716537918,2.38859738919,-0.724213005817,-0.819012783722,2.61279384963,-1.03452353993,-1.03096020997,-2.98623632645,-0.572191472345,1.18805073367,2.05627399202,-0.992177930333,1.76023306558,-0.39143852716,0.870665131285,-0.256157457384,-2.07427980358,0.785164537316,1.04721079306,0.82241242147,-1.14559749667,-2.51865841703,-1.06029016457,-0.549450736968,-0.033522113426,-0.610528130433,-0.781436088158,0.693042163147,-0.404895799483
0.101135577936,1.062531603,-1.94185757128,0.957507503589,-0.515104989693,-2.20533315689,-0.531589579433,1.90203766439,-0.25501403671,-1.06794566166,1.31708091296,2.40866385315,-0.730116202009,-0.834398266454,2.6381631452,-1.04069668736,-1.05168785085,-3.00956283627,-0.578085504357,1.20530383606,2.07707099597,-1.00513724855,1.78385987101,-0.391515700282,0.896193843963,-0.257499761017,-2.1099761667,0.792669758754,1.04787897385,0.845753739513,-1.16621907298,-2.54683025706,-1.06185391818,-0.548182312977,-0.0451957984963,-0.620205127956,-0.7856565067,0.704910413728,-0.388683780751
0.104993625957,1.0778067338,-1.9652925266,0.977497048006,-0.523889887893,-2.22441642502,-0.543254265819,1.9312998825,-0.268189106372,-1.07835042198,1.3472908681,2.42797428158,-0.735431761044,-0.849943426315,2.66267742744,-1.04691252103,-1.07184595658,-3.03226208539,-0.583995252674,1.22171983139,2.0970018657,-1.01827640972,1.80718294153,-0.392202958217,0.921974616068,-0.258116034117,-2.14532830955,0.800272891524,1.04816559526,0.868872174581,-1.18708983582,-2.57489091204,-1.06284262313,-0.546961869131,-0.0566455655081,-0.62952635202,-0.789968669288,0.71639636057,-0.372882942455
0.108453691083,1.09319221724,-1.9881357694,0.997092919342,-0.532981769933,-2.2428031266,-0.555263106076,1.96094855246,-0.281164576885,-1.08858622895,1.37779091573,2.44655885948,-0.74017148346,-0.865644924808,2.68637844208,-1.05316735332,-1.09146372661,-3.05436932895,-0.589914584613,1.23734571638,2.1161152939,-1.03157207975,1.83021823302,-0.393477151427,0.948009101973,-0.258016731745,-2.18034041452,0.807982713349,1.04809081754,0.891788497396,-1.20820355304,-2.60284922204,-1.06327353563,-0.545796113422,-0.0678634545205,-0.63848390142,-0.794367658884,0.72748960351,-0.357507573608
0.111526811897,1.10868402621,-2.01040785781,1.01631271769,-0.54237329135,-2.26052388558,-0.567607125842,1.99097678263,-0.293942214231,-1.09865993803,1.40857599034,2.46444716572,-0.7443474765,-0.881499312295,2.70930622383,-1.05945755612,-1.1105693079,-3.07591840612,-0.595838164903,1.25222641493,2.13445791828,-1.04500230128,1.85298151477,-0.395314856842,0.974298341878,-0.257213458001,-2.21501793235,0.815806149101,1.04767393583,0.914522040331,-1.22955411062,-2.63071402464,-1.063164306,-0.544690542931,-0.0788428383574,-0.64707155562,-0.798848278193,0.738182440099,-0.342568736096
0.114224155763,1.12427806579,-2.03212941342,1.0351732429,-0.552057096273,-2.27760841136,-0.580276422943,2.02137744366,-0.306524368085,-1.10857907155,1.43964032392,2.48166803439,-0.74797201756,-0.89750298848,2.73149899396,-1.06577960598,-1.12918968304,-3.09694162652,-0.601761375331,1.26640467312,2.15207416097,-1.05854645454,1.87548821026,-0.397692560089,1.00084269555,-0.255718821671,-2.24936730056,0.823748423485,1.0469333627,0.937090672173,-1.25113547009,-2.65849401078,-1.06253281587,-0.54364952729,-0.0895783907693,-0.655284705456,-0.803405118942,0.748469710299,-0.328074445002
0.116556938939,1.13997013716,-2.05332092251,1.0536904302,-0.562025801533,-2.2940854096,-0.593260192503,2.05214313951,-0.318913890209,-1.11835165423,1.47097747446,2.49824945662,-0.75105745412,-0.913652173272,2.75299310893,-1.07213011605,-1.14735059931,-3.11746970402,-0.607680239827,1.27992101186,2.16900613935,-1.07218520643,1.89775326577,-0.400586804753,1.02764178782,-0.253546310264,-2.28339569327,0.83181320831,1.04588662764,0.959510795079,-1.2729416254,-2.6861976038,-1.06139704503,-0.542676401886,-0.100066041547,-0.663120272645,-0.808032628254,0.758348620887,-0.314029871107
0.118536368123,1.15575590917,-2.07400257958,1.07187931337,-0.572271977452,-2.30998252835,-0.606546754899,2.08326617884,-0.331114057718,-1.12798607037,1.50258035029,2.51421851502,-0.753616133727,-0.929942886116,2.77382304912,-1.07850585658,-1.16507653073,-3.1375317282,-0.613591355063,1.29281372496,2.18529363388,-1.08590045173,1.91979104399,-0.403974312435,1.05469446474,-0.25071018151,-2.31711080163,0.840002762958,1.04455038997,0.981797359111,-1.29496656046,-2.71383285888,-1.05977496388,-0.541773566085,-0.110302920332,-0.670576620226,-0.812725170271,0.767818556404,-0.300437558291
0.120173599586,1.17163089672,-2.09419416658,1.08975400952,-0.582788127198,-2.32532633148,-0.620123587676,2.11473854685,-0.343128501632,-1.13749093981,1.53444123184,2.52960134398,-0.755660358383,-0.946370932185,2.79402143829,-1.08490376603,-1.182390666,-3.15715516506,-0.619491826536,1.30511891219,2.20097410026,-1.09967524968,1.94161523982,-0.40783207735,1.0819987592,-0.247225370958,-2.35052064296,0.84831806725,1.04294046196,1.00396389052,-1.31720420834,-2.74140738081,-1.05768444766,-0.540942582688,-0.120287291047,-0.67765345609,-0.817477081817,0.776880882643,-0.287297649458
0.121479712477,1.18759044482,-2.11391496173,1.10732772051,-0.593566666079,-2.34014229306,-0.633977362296,2.1465518782,-0.354961140959,-1.14687500969,1.56655179201,2.54442311037,-0.757202358475,-0.962931894126,2.81361908621,-1.09132095466,-1.19931491681,-3.17636588011,-0.625379210003,1.3168705386,2.21608271552,-1.11349375844,1.96323881567,-0.412137439128,1.10955186538,-0.243107414011,-2.38363339693,0.856758946349,1.04107183956,1.02602253063,-1.33964841285,-2.76892825767,-1.05514320912,-0.540184275701,-0.13001847895,-0.68435173173,-0.822282721411,0.785538747744,-0.274608115543
0.122465693319,1.20362971778,-2.13318367274,1.12461274698,-0.604599901819,-2.35445480741,-0.648093986352,2.17869743111,-0.366616122468,-1.15614705983,1.598903116,2.55870801,-0.758254282034,-0.979621128301,2.83264504783,-1.09775470204,-1.2158699414,-3.19518817814,-0.631251458087,1.32810051299,2.23065244913,-1.12734116936,1.98467395369,-0.416868137204,1.13735012103,-0.238372380623,-2.41645726627,0.865324187625,1.03895873852,1.04798408268,-1.36229289315,-2.79640200861,-1.05216874643,-0.539498824286,-0.139496792282,-0.690673538215,-0.827136511381,0.793796885126,-0.262364983061
0.123142429075,1.21974369262,-2.15201839006,1.14162051207,-0.615880016491,-2.36828721054,-0.662458651661,2.21116606311,-0.378097766143,-1.16531581962,1.63148572162,2.57247927614,-0.758828195797,-0.996433764673,2.85112669414,-1.10420245012,-1.23207517979,-3.21364485498,-0.637106871786,1.33883877944,2.24471415219,-1.14120364265,2.00593202251,-0.422002349938,1.16538899721,-0.233036820805,-2.44900035989,0.874011649663,1.03661463419,1.06985806462,-1.38513121177,-2.82383454397,-1.04877830383,-0.538885851418,-0.148723440411,-0.696622001246,-0.83203297316,0.801661421584,-0.250562556544
0.123520706601,1.23592715624,-2.17043655617,1.15836159234,-0.627399050619,-2.38166180965,-0.677055888414,2.24394820893,-0.389410516297,-1.17438989481,1.66428958052,2.5857591971,-0.758936095049,-1.01336470967,2.86908979031,-1.11066179286,-1.24794889704,-3.23175725762,-0.642944056632,1.34911341734,2.25829665867,-1.15506824534,2.02702355662,-0.427518721261,1.19366309478,-0.227117719133,-2.48127059592,0.882818363681,1.03405230342,1.09165276604,-1.40815674637,-2.85123113613,-1.04498884259,-0.538344506312,-0.157700450202,-0.70220117694,-0.836966756104,0.809139693183,-0.239193632993
0.123611216605,1.25217470588,-2.18845494803,1.17484575401,-0.639148889757,-2.394599918,-0.691869625316,2.27703386066,-0.400558898157,-1.18337770297,1.69730414092,2.59856914047,-0.758589919724,-1.03040865151,2.88655857821,-1.11713046365,-1.26350823232,-3.24954534968,-0.648761883192,1.35895074613,2.2714268943,-1.16892289247,2.04795824621,-0.433396377347,1.22216614742,-0.220632456508,-2.51327562266,0.891740627744,1.03128386759,1.11337530808,-1.43136266559,-2.87859639986,-1.04081702044,-0.537873540132,-0.16643058216,-0.707415949754,-0.841932660332,0.816240070826,-0.2282497062
0.123424560544,1.26848075231,-2.20608966973,1.19108199316,-0.651121253729,-2.40712189318,-0.706883255496,2.31041255085,-0.411547479748,-1.19228741633,1.73051835212,2.61092958213,-0.757801574675,-1.04756006753,2.90355586058,-1.12360632135,-1.27876925159,-3.26702778003,-0.65455945161,1.36837543156,2.28412998924,-1.1827562918,2.06874493619,-0.439614935476,1.25089103064,-0.213598777567,-2.54502275514,0.900774094194,1.02832083554,1.13503170507,-1.45474190897,-2.90593428097,-1.03627917765,-0.537471374812,-0.174917247716,-0.712271933742,-0.8469256542,0.822971796852,-0.217721159402
0.12297125919,1.28483952567,-2.22335615341,1.20707857857,-0.663307688652,-2.41924717709,-0.722079707743,2.34407333874,-0.422380838792,-1.20112691142,1.76392069107,2.62286013836,-0.756582952336,-1.06481323334,2.92010308508,-1.13008733551,-1.29374700218,-3.28422195264,-0.660336059891,1.37741059154,2.29642939186,-1.1965578925,2.08939163268,-0.446154506949,1.27982977673,-0.20603476225,-2.57651892562,0.909913850711,1.02517414596,1.15662692722,-1.47828717123,-2.93324805229,-1.03139132847,-0.537136165093,-0.183164428756,-0.716775378099,-0.851940887061,0.829344833454,-0.207597445284
0.122261761796,1.30124508333,-2.24026916654,1.22284309652,-0.675699561756,-2.43099433655,-0.737441522481,2.37800480008,-0.433063534339,-1.20990372467,1.79749919105,2.63437960011,-0.754945956338,-1.08216223327,2.93622042695,-1.13657157161,-1.30845556826,-3.30114409641,-0.666091175621,1.3860778996,2.30834698137,-1.21031783776,2.10990551601,-0.452995695642,1.30897359515,-0.197958800222,-2.60777064606,0.919154495461,1.02185420851,1.17816496357,-1.50199089085,-2.96054031607,-1.02616915665,-0.536865854013,-0.191176600331,-0.720933077715,-0.856973697988,0.835369723348,-0.197867252748
0.121306455024,1.31769131994,-2.25684282408,1.23838249659,-0.688288059006,-2.44238110369,-0.752950931765,2.4121950209,-0.443600082784,-1.21862501366,1.8312414726,2.64550596816,-0.752902524885,-1.0996009723,2.95192686902,-1.14305717657,-1.32290812597,-3.31780933398,-0.671824410845,1.39439768481,2.31990317766,-1.22402692141,2.13029295896,-0.460119593531,1.33831289835,-0.189389566971,-2.63878398116,0.928490206711,1.01837094318,1.19964888482,-1.52584524291,-2.98781301212,-1.02062801424,-0.536658222254,-0.198958657253,-0.724752289261,-0.86201962108,0.841057462764,-0.188518660269
0.12011567097,1.33417197907,-2.27309060443,1.25370313815,-0.701064185468,-2.45342441545,-0.768589942456,2.44663159543,-0.453994937943,-1.22729752351,1.8651347766,2.65625648873,-0.750464652902,-1.11712318893,2.96724027873,-1.14954236493,-1.33711699768,-3.33423174873,-0.677535499822,1.4023890272,2.33111704725,-1.23767654841,2.1505595497,-0.467507774276,1.36783733261,-0.18034600062,-2.66956453048,0.93791480733,1.01473381779,1.22108090558,-1.54984213623,-3.01506743091,-1.01478292259,-0.536510931766,-0.206515845102,-0.728240653158,-0.867074387973,0.846419386563,-0.179539275906
0.118699693762,1.35068066658,-2.28902536812,1.26881083679,-0.714018768354,-2.46414045171,-0.784340421649,2.48130162853,-0.464252474821,-1.23592755831,1.89916599936,2.66664768874,-0.747644412178,-1.13472246914,2.98217748142,-1.15602540606,-1.35109370476,-3.35042444946,-0.683224279393,1.4100698482,2.3420064044,-1.25125869902,2.17071011825,-0.475142285758,1.39753581379,-0.170847278591,-2.70011741847,0.947421824509,1.01095188315,1.24246244571,-1.57397321467,-3.04230423119,-1.00864857515,-0.536421564155,-0.213853696012,-0.731406121585,-0.872133928075,0.851467065118,-0.170916364275
0.11706876436,1.36721086531,-2.30465937853,1.28371091055,-0.727142462651,-2.47454467191,-0.800184183382,2.51619174275,-0.474376976707,-1.24452095728,1.93332172976,2.67669541045,-0.744453968858,-1.15239226116,2.99675432987,-1.1625046124,-1.36484901853,-3.36639963256,-0.688890671729,1.41745699558,2.35258790694,-1.26476589646,2.19074876627,-0.483005642267,1.4273965676,-0.160912793483,-2.73044729131,0.957004545053,1.00703380583,1.26379419057,-1.59822986238,-3.06952346147,-1.00223934137,-0.536387654307,-0.220977969434,-0.734256892596,-0.877194367007,0.856212212425,-0.162636960948
0.115233083277,1.38375595113,-2.32000432392,1.29840822538,-0.74042575921,-2.48465184985,-0.816103075589,2.55128809031,-0.484372625256,-1.2530830756,1.96758828801,2.68641484502,-0.740905597813,-1.17012589105,3.01098576979,-1.16897832913,-1.37839300908,-3.38216864119,-0.694534669228,1.42456632286,2.3628771464,-1.27819117778,2.21067889933,-0.491080816892,1.45740717428,-0.15056212762,-2.76055831955,0.966656066532,1.00298789859,1.28507614992,-1.62260321285,-3.09672458497,-0.995569271321,-0.536406719712,-0.227894597981,-0.736801350238,-0.882252023665,0.860666604822,-0.154687974846
0.113202811064,1.40030921008,-2.33507134041,1.31290723972,-0.753858995191,-2.4944761067,-0.832079066288,2.58657636979,-0.4942434932,-1.26161876979,2.00195176597,2.69582056485,-0.737011693508,-1.1879165789,3.0248859014,-1.17544492503,-1.39173509181,-3.39774202163,-0.700156321345,1.43141276304,2.37288873236,-1.29152806762,2.23050326136,-0.499351234527,1.4875546171,-0.139815025897,-2.79045420583,0.976369344571,0.998822148111,1.30630771545,-1.64708416162,-3.1239065075,-0.988652100732,-0.536476285911,-0.234609638322,-0.739048010532,-0.887303406223,0.864842009628,-0.147056279302
0.110988066474,1.41686385643,-2.34987103543,1.3272120478,-0.767432366691,-2.50403094206,-0.848094327983,2.62204184782,-0.50399353936,-1.27013238753,2.03639806871,2.70492655441,-0.732784777123,-1.20575745566,3.03846803711,-1.1819027848,-1.40488407164,-3.41312957658,-0.705755723166,1.43801039681,2.38263637089,-1.30477055469,2.25022397084,-0.507800765759,1.51782533466,-0.128691366688,-2.82013819683,0.986137236528,0.994544240346,1.32748771663,-1.67166338224,-3.1510676079,-0.981501256038,-0.53659390848,-0.241129227033,-0.741005473064,-0.892345207391,0.868750123005,-0.139728792468
0.108598922285,1.43341305169,-2.3644135113,1.34132642149,-0.781135943432,-2.51332926319,-0.864131319295,2.65766938551,-0.513626605638,-1.27862776189,2.07091295702,2.71374623957,-0.728237499759,-1.22364158036,3.05174475539,-1.18835030276,-1.4178481848,-3.42834041558,-0.711333005557,1.44437251532,2.39213293731,-1.31791307062,2.26984255835,-0.516413721847,1.54820527621,-0.117211130661,-2.84961309886,0.995952541773,0.990161583362,1.34861447494,-1.69633134528,-3.17820577071,-0.974129859375,-0.536757191902,-0.247459541234,-0.742682377907,-0.897374299116,0.872402516294,-0.1326925478
0.106045398869,1.44994992412,-2.37870838879,1.35525385052,-0.794959685309,-2.52238341253,-0.880172862932,2.69344346951,-0.52314641571,-1.28710820979,2.10548209065,2.72229251523,-0.723382641676,-1.24156195784,3.06472795098,-1.19478587787,-1.43063513825,-3.44338300246,-0.716888326707,1.45051167777,2.40139054322,-1.33095047083,2.2893600052,-0.525174850872,1.57867995994,-0.105394367502,-2.8788812965,1.00580803878,0.985681327761,1.36968585634,-1.72107834008,-3.20531842053,-0.966550733272,-0.536963805639,-0.253606763789,-0.744087367529,-0.902387726942,0.875810590126,-0.125934755348
0.103337455582,1.46646758892,-2.39276483034,1.36899758077,-0.808893460643,-2.53120519335,-0.896202219133,2.72934824745,-0.532556575117,-1.29557653461,2.1400910718,2.73057777132,-0.718233107563,-1.25951155663,3.07742888169,-1.20120791005,-1.44325214667,-3.45826520005,-0.722421864931,1.45643976411,2.41042059823,-1.34387801726,2.30877678283,-0.534069335084,1.60923453346,-0.0932611606203,-2.9079447738,1.01569651923,0.981110384798,1.39069932193,-1.74589449889,-3.23240255784,-0.958776404935,-0.537211497698,-0.259577052818,-0.745229053359,-0.907382704128,0.878985535607,-0.119442854542
0.100484980181,1.4829591686,-2.40659156287,1.38256065063,-0.822927065922,-2.53980589392,-0.912203153858,2.76536756753,-0.541860572534,-1.30403503279,2.1747254888,2.73861391708,-0.71280191794,-1.27748332708,3.08985821189,-1.20761479771,-1.45570596731,-3.4729943122,-0.727933812591,1.46216802305,2.41923386639,-1.35669136269,2.3280928928,-0.543082789416,1.6398538362,-0.080831589987,-2.93680513756,1.0256108192,0.976455442282,1.41165197665,-1.77076982304,-3.25945479588,-0.950819110066,-0.537498105939,-0.265376515233,-0.746115986632,-0.912356605653,0.881938301909,-0.113204559176
0.0974977764346,1.49941781366,-2.42019690005,1.39594592509,-0.837050246847,-2.54819631006,-0.928160001082,2.80148502173,-0.551061781962,-1.31248550428,2.20937095939,2.74641240368,-0.707102196847,-1.29547021954,3.10202605295,-1.21400493644,-1.46800293243,-3.48757712321,-0.733424371015,1.46770711574,2.42784051781,-1.36938653629,2.34730790691,-0.552201261073,1.67052246307,-0.0681256933434,-2.96546364229,1.03554384775,0.971722978397,1.43254061612,-1.79569421078,-3.28647139827,-0.942690796127,-0.537821567325,-0.27101118401,-0.746756633153,-0.91730696217,0.884679569646,-0.107207895249
0.0943855501885,1.51583672319,-2.43358876386,1.40915612772,-0.851252720445,-2.55638676635,-0.944057718669,2.83768399238,-0.560163465661,-1.32092926651,2.24401317354,2.75398424527,-0.701147156031,-1.31346520251,3.11394200071,-1.22037671872,-1.48014897976,-3.50201993482,-0.738893746298,1.47306715541,2.43625017563,-1.3819599303,2.36642100748,-0.56141123007,1.70122482892,-0.0551634260743,-2.99392121647,1.04548861291,0.96691927356,1.45336177145,-1.82065748647,-3.31344831699,-0.934403125057,-0.538179925325,-0.276486998885,-0.747159351623,-0.922231453958,0.887219729432,-0.101441232272
0.0911578941351,1.53220916536,-2.44677470548,1.42219387009,-0.865524198061,-2.56438713597,-0.95988193742,2.87394770151,-0.569168777621,-1.32936717181,2.27863793532,2.76134003839,-0.694950075913,-1.33146128062,3.12561517032,-1.2267285346,-1.49214968088,-3.51632860093,-0.744342145884,1.47825774336,2.44447195867,-1.39440828758,2.38543102733,-0.570699610569,1.73194523331,-0.041964620079,-3.02217848978,1.05543824519,0.962050420464,1.474111752,-1.84564943075,-3.34038123051,-0.925967475414,-0.538571335621,-0.281809790179,-0.747332375173,-0.927127904909,0.889568865087,-0.0958933086585
0.0878242715736,1.54852849756,-2.45976192537,1.4350616789,-0.879854408964,-2.57220685941,-0.975619003031,2.91025926242,-0.578080767428,-1.33779962781,2.31323120368,2.7684899799,-0.688524283644,-1.34945151237,3.13705422849,-1.23305877314,-1.5040102676,-3.53050856009,-0.749769775834,1.48328800144,2.45251452002,-1.40672868976,2.40433648946,-0.580053752829,1.76266792492,-0.0285489420143,-3.05023582092,1.06538601884,0.957122332468,1.49478668604,-1.87065981121,-3.36726558171,-0.917394943967,-0.53899407028,-0.286985265449,-0.747283795784,-0.931994276576,0.891736740962,-0.0905532517234
0.0843939994501,1.56478818605,-2.47255729252,1.44776202056,-0.894233124376,-2.57985496206,-0.991256010794,2.94660173306,-0.586902384382,-1.3462266206,2.34777913179,2.77544388358,-0.681883128609,-1.36742902754,3.14826742338,-1.23936582469,-1.51573565662,-3.54456486596,-0.755176838699,1.48816660148,2.46038608194,-1.41891854597,2.42313564595,-0.589461445591,1.79337716518,-0.0149358513058,-3.07809332585,1.07532537088,0.952140750453,1.51538255939,-1.89567841348,-3.39409661536,-0.908696346753,-0.539446520517,-0.292018998692,-0.747021551273,-0.936828662297,0.893732792933,-0.0854105928387
0.0808762309768,1.580981825,-2.48516736284,1.46029732332,-0.908650181668,-2.58734007075,-1.00678083301,2.98295817041,-0.595636481745,-1.35464774036,2.3822681047,2.7822111953,-0.675039955773,-1.38538704404,3.15926261227,-1.24564808369,-1.52733047238,-3.55850221578,-0.760563531919,1.49290179194,2.46809446732,-1.43097558188,2.44182651619,-0.598910918699,1.82405729064,-0.00114455833398,-3.10575090608,1.08524991798,0.94711124833,1.53589525181,-1.92069507212,-3.42086941479,-0.899882219661,-0.539927198184,-0.296916421808,-0.746553414558,-0.94162928139,0.895566122618,-0.0804552782127
0.0772799381221,1.59710315468,-2.49759839673,1.47266999682,-0.923095508511,-2.59467042955,-1.0221821392,3.01931168555,-0.604285821031,-1.36306220897,2.41668477516,2.78880100705,-0.668008077272,-1.40331888426,3.17004728723,-1.25190395204,-1.53879906825,-3.57232497706,-0.765930046669,1.49750142193,2.47564712792,-1.44289782889,2.46040692395,-0.608390845752,1.85469277342,0.0128060167953,-3.13320827673,1.09515347141,0.942039237327,1.55632057132,-1.94569970119,-3.44757893773,-0.890962818568,-0.540434736084,-0.301682818093,-0.745886984931,-0.946394473452,0.897245494427,-0.075677675757
0.0736138942606,1.61314607878,-2.50985637574,1.48488244928,-0.937559146758,-2.60185391457,-1.03744940931,3.05564549859,-0.612853076247,-1.37146890931,2.45101609731,2.79522206979,-0.660800742674,-1.42121799078,3.18062859879,-1.2581318428,-1.55014554628,-3.5860372125,-0.771276567106,1.50197296303,2.48305116983,-1.4546836135,2.47887453339,-0.617890346615,1.8852682795,0.0268972844948,-3.16046499428,1.10503004999,0.936929969223,1.57665428624,-1.97068232413,-3.47422005089,-0.881948119112,-0.540967887244,-0.306323317492,-0.745029681099,-0.951122692738,0.898779335077,-0.0710685784602
0.0698866572552,1.62910468062,-2.5219470183,1.49693710218,-0.952031275844,-2.60889804819,-1.05257294011,3.09194299299,-0.62134083803,-1.37986641589,2.48524935815,2.80148280533,-0.653431108344,-1.43907794125,3.19101337787,-1.26433018433,-1.56137377542,-3.5996427033,-0.776603269942,1.50632352902,2.49031337618,-1.4663315466,2.49722688355,-0.627398989583,1.91576872428,0.0411110245709,-3.18752048363,1.11487389127,0.931788538661,1.59689215515,-1.99563310272,-3.50078756322,-0.872847816144,-0.541525523228,-0.31084289342,-0.743988735774,-0.955812502651,0.900175735255,-0.0666192046646
0.0661065532245,1.64497323829,-2.53387579467,1.50883640268,-0.966502235508,-2.61581001255,-1.0675438453,3.12818776878,-0.629751617617,-1.38825302634,2.51937220661,2.80759131725,-0.645912206347,-1.45689246248,3.20120815606,-1.27049742446,-1.5724874084,-3.61314497095,-0.781910324295,1.51055989386,2.49744022759,-1.47784051275,2.51546142145,-0.636906793063,1.94617932509,0.0554294233686,-3.21437406437,1.12467946094,0.92661988469,1.61702995457,-2.02054236482,-3.52727625764,-0.863671322945,-0.542106631615,-0.31524636092,-0.742771191604,-0.960462570329,0.901442453114,-0.0623211956118
0.0622816612272,1.66074623839,-2.545647941,1.52058283372,-0.980962547635,-2.62259666251,-1.08235404958,3.16436369406,-0.638087850624,-1.39662679341,2.5533726801,2.81355540101,-0.638256913296,-1.47465544364,3.21121918432,-1.27663203496,-1.58348989739,-3.62654729748,-0.787197891774,1.51468850805,2.5044379204,-1.48920965928,2.53357553347,-0.646404226596,1.97648565036,0.0698351088571,-3.24102497607,1.13444146058,0.921428791675,1.63706350457,-2.0454006308,-3.5536809211,-0.854427770283,-0.542710312724,-0.319538375998,-0.741383898286,-0.965071661355,0.902586919328,-0.0581666105998
0.0584197990682,1.67641838859,-2.55726847247,1.53217892199,-0.995402937071,-2.629264538,-1.09699627728,3.20045495429,-0.646351900602,-1.40498555722,2.58723922848,2.8193825534,-0.630477919552,-1.49236094845,3.22105245022,-1.28273251588,-1.5943845084,-3.63985274446,-0.792466126752,1.51871551357,2.51131238302,-1.50043838519,2.55156657492,-0.655882211107,2.00667366504,0.084311183362,-3.26747240243,1.14415483387,0.916219889696,1.65698869207,-2.0701986383,-3.57999637286,-0.845126005365,-0.543335775695,-0.323723435947,-0.739833510686,-0.969638634579,0.903616243473,-0.0541479200669
0.054528510401,1.69198462867,-2.56874219574,1.54362724392,-1.00981435123,-2.63581987604,-1.11146403607,3.23644609908,-0.654546062349,-1.41332697717,2.62096073534,2.82507998125,-0.622587699166,-1.51000322642,3.23071369395,-1.28879739998,-1.60517433468,-3.65306417065,-0.797715176784,1.52264675764,2.51806929057,-1.51152633,2.5694318978,-0.665332118274,2.0367297722,0.0988412536887,-3.29371549414,1.15381477126,0.910997654561,1.67680149218,-2.09492736532,-3.60621749087,-0.835774590785,-0.543982334016,-0.327805880522,-0.738126487845,-0.974162437082,0.90453722149,-0.0502579968992
0.0506150532708,1.70744014018,-2.5800737205,1.55493042974,-1.02418797838,-2.64226862221,-1.12575159618,3.27232208594,-0.662672564978,-1.42164856346,2.65452653659,2.83065460972,-0.614598480895,-1.52757672293,3.24020842295,-1.29482525697,-1.61586230899,-3.66618424839,-0.802945183144,1.52648780541,2.52471407799,-1.52247336221,2.58716887657,-0.674745768926,2.06664085055,0.113409458425,-3.3197533904,1.16341671331,0.905766407543,1.69649798728,-2.11957805144,-3.63233923623,-0.826381803519,-0.544649400599,-0.331789893829,-0.736269092746,-0.978642099275,0.905356344036,-0.0464901062307
0.0466863902124,1.72278035461,-2.59126747027,1.56609116578,-1.03851526445,-2.64861644178,-1.13985396592,3.30806832073,-0.67073357473,-1.4299477077,2.68792643638,2.83611309008,-0.606522220622,-1.54507608833,3.24954192546,-1.30081469761,-1.62645121496,-3.67921547889,-0.808156281443,1.53024395169,2.53125195181,-1.53327956775,2.60477493181,-0.684115430405,2.09639428775,0.128000492256,-3.34558523887,1.17295635262,0.900530314957,1.71607438417,-2.14414221712,-3.65835667561,-0.816955634053,-0.545336482476,-0.335679506806,-0.734267392735,-0.983076730154,0.906079805544,-0.0428378939901
0.0427491799811,1.73800096008,-2.60232769254,1.57711219528,-1.05278792835,-2.65486873056,-1.1537668638,3.34367069461,-0.678731197548,-1.43822171243,2.72115072031,2.84146180709,-0.598370575457,-1.56249618581,3.25871928301,-1.30676437758,-1.63694369757,-3.6921602064,-0.813348602302,1.53392023195,2.53768790076,-1.54394523817,2.62224755194,-0.693433812861,2.12597800947,0.14259962716,-3.3712102142,1.18242963459,0.895293387644,1.73552702914,-2.16861168091,-3.68426500167,-0.807503785699,-0.546043175223,-0.339478600192,-0.732127260518,-0.987465512725,0.906713513817,-0.0392953744242
0.0388097709695,1.75309790654,-2.61325846809,1.58799631763,-1.06699797563,-2.66103062533,-1.16748668811,3.37911561711,-0.686667481406,-1.44646781937,2.75419016596,2.84670688615,-0.59015487975,-1.57983209823,3.2677453819,-1.31267300108,-1.64734227281,-3.70502063139,-0.818522272059,1.53752143262,2.54402670539,-1.5544708587,2.63958431277,-0.702694064461,2.15538050419,0.157192730418,-3.39662753483,1.19183275702,0.890059480479,1.75485242114,-2.19297857462,-3.71005955139,-0.798033674174,-0.546769157175,-0.343190907897,-0.729854375641,-0.991807699588,0.90726310002,-0.035856916809
0.034874196328,1.76806740956,-2.62406371975,1.59874638648,-1.08113771049,-2.66710701403,-1.18101048417,3.41439004537,-0.694544418422,-1.45468323604,2.78703605089,2.85185420009,-0.58188612323,-1.5970791338,3.27662492372,-1.31853932411,-1.65764933653,-3.71779882265,-0.823677413484,1.5410521008,2.5502729467,-1.56485709629,2.65678289491,-0.711889765504,2.18459084373,0.171766279381,-3.42183647827,1.20116216859,0.884832291946,1.77404722305,-2.21723535648,-3.73573582246,-0.788552427485,-0.547514183526,-0.346820020683,-0.727454226405,-0.996102608726,0.907733928931,-0.0325172315438
0.030948170782,1.7829059526,-2.63474722049,1.60936530664,-1.09519974606,-2.67310254573,-1.19433591011,3.44948150933,-0.70236394675,-1.46286516077,2.81968015804,2.85690937591,-0.573574931415,-1.61423283062,3.28536243514,-1.32436215746,-1.66786717265,-3.73049672862,-0.828814146498,1.54451655348,2.55643101415,-1.57510478754,2.67384109922,-0.721014921473,2.21359869958,0.186307373017,-3.44683639464,1.21041456638,0.87961536387,1.79310827119,-2.24137482209,-3.76128948758,-0.779066886175,-0.548278080369,-0.350369390095,-0.724932112142,-1.00034961946,0.90813110935,-0.0292713558009
0.0270370891147,1.79761028803,-2.6453126009,1.61985603004,-1.109177013,-2.67902164024,-1.20746120145,3.48437813286,-0.710127952289,-1.47101080582,2.85211477881,2.86187780126,-0.565231548408,-1.63128896011,3.29396227677,-1.33014036932,-1.67799796066,-3.74311618771,-0.833932588858,1.54791888635,2.5625051129,-1.58521492667,2.69075686008,-0.730063955063,2.24239435524,0.200803740255,-3.47162671863,1.21958689251,0.874412081337,1.81203258308,-2.26539011338,-3.78671640687,-0.769583603985,-0.549060738755,-0.353842332579,-0.722293145817,-1.00454816864,0.908459504551,-0.0261146388904
0.0231460262577,1.81217743671,-2.65576335618,1.63022155097,-1.12306276642,-2.68486849754,-1.22038513493,3.51906865083,-0.717838270203,-1.47911741861,2.88433271372,2.86676463084,-0.556865822167,-1.64824352941,3.30242865148,-1.33587288746,-1.68804378255,-3.75565893791,-0.83903285682,1.55126298229,2.56849927058,-1.5951886535,2.70752825674,-0.739031697226,2.27096871452,0.215243745227,-3.49620697987,1.22867632992,0.869225672863,1.83081736359,-2.28927472562,-3.81201263831,-0.760108848944,-0.549862108818,-0.357242033726,-0.719542256907,-1.00869774699,0.908723742703,-0.0230427274809
0.0192797389175,1.82660468642,-2.66610285259,1.64046490058,-1.13685059102,-2.69064710704,-1.23310699218,3.55354242229,-0.725496686296,-1.48718230093,2.91632727095,2.87157479279,-0.548487192261,-1.66509278271,3.31076561186,-1.34155870117,-1.69800662918,-3.76812662556,-0.844115065759,1.55455251944,2.57441734352,-1.60502724168,2.72415352273,-0.747913377314,2.29931330619,0.229616389481,-3.52057681161,1.23768029741,0.864059210837,1.84946000954,-2.31302251231,-3.83717444644,-0.750648604937,-0.55068219403,-0.360571552615,-0.716684194518,-1.01279789569,0.908928227176,-0.0200515508012
0.015442668645,1.84088958905,-2.67633433339,1.6505891409,-1.1505344047,-2.69636125643,-1.24562652339,3.5877894397,-0.733104938234,-1.4952028262,2.94809226279,2.87631299495,-0.540104680142,-1.68183320155,3.3189770673,-1.34719686268,-1.70788840614,-3.78052081344,-0.849179330733,1.55779097916,2.58026302265,-1.61473208691,2.74063105337,-0.756704612381,2.327420285,0.243911311325,-3.544735958,1.24659644401,0.858915612274,1.86795811291,-2.33662768837,-3.86219830924,-0.741208573758,-0.551521045618,-0.363833826203,-0.71372353072,-1.01684820318,0.909077146683,-0.0171373059332
